digraph Tree {
node [shape=box] ;
0 [label="glucose <= 144.5\ngini = 0.459\nsamples = 537\nvalue = [345, 192]"] ;
1 [label="bmi <= 26.9\ngini = 0.37\nsamples = 416\nvalue = [314, 102]"] ;
0 -> 1 [labeldistance=2.5, labelangle=45, headlabel="True"] ;
2 [label="glucose <= 138.0\ngini = 0.055\nsamples = 107\nvalue = [104, 3]"] ;
1 -> 2 ;
3 [label="pregnant <= 9.5\ngini = 0.038\nsamples = 103\nvalue = [101, 2]"] ;
2 -> 3 ;
4 [label="pedigree <= 0.675\ngini = 0.02\nsamples = 97\nvalue = [96, 1]"] ;
3 -> 4 ;
5 [label="gini = 0.0\nsamples = 82\nvalue = [82, 0]"] ;
4 -> 5 ;
6 [label="pedigree <= 0.682\ngini = 0.124\nsamples = 15\nvalue = [14, 1]"] ;
4 -> 6 ;
7 [label="gini = 0.0\nsamples = 1\nvalue = [0, 1]"] ;
6 -> 7 ;
8 [label="gini = 0.0\nsamples = 14\nvalue = [14, 0]"] ;
6 -> 8 ;
9 [label="age <= 30.5\ngini = 0.278\nsamples = 6\nvalue = [5, 1]"] ;
3 -> 9 ;
10 [label="gini = 0.0\nsamples = 1\nvalue = [0, 1]"] ;
9 -> 10 ;
11 [label="gini = 0.0\nsamples = 5\nvalue = [5, 0]"] ;
9 -> 11 ;
12 [label="pregnant <= 2.0\ngini = 0.375\nsamples = 4\nvalue = [3, 1]"] ;
2 -> 12 ;
13 [label="gini = 0.0\nsamples = 3\nvalue = [3, 0]"] ;
12 -> 13 ;
14 [label="gini = 0.0\nsamples = 1\nvalue = [0, 1]"] ;
12 -> 14 ;
15 [label="age <= 28.5\ngini = 0.435\nsamples = 309\nvalue = [210, 99]"] ;
1 -> 15 ;
16 [label="bp <= 12.0\ngini = 0.299\nsamples = 153\nvalue = [125, 28]"] ;
15 -> 16 ;
17 [label="gini = 0.0\nsamples = 3\nvalue = [0, 3]"] ;
16 -> 17 ;
18 [label="bmi <= 49.1\ngini = 0.278\nsamples = 150\nvalue = [125, 25]"] ;
16 -> 18 ;
19 [label="pedigree <= 0.501\ngini = 0.256\nsamples = 146\nvalue = [124, 22]"] ;
18 -> 19 ;
20 [label="glucose <= 139.5\ngini = 0.146\nsamples = 88\nvalue = [81, 7]"] ;
19 -> 20 ;
21 [label="pregnant <= 7.0\ngini = 0.111\nsamples = 85\nvalue = [80, 5]"] ;
20 -> 21 ;
22 [label="pedigree <= 0.253\ngini = 0.091\nsamples = 84\nvalue = [80, 4]"] ;
21 -> 22 ;
23 [label="pedigree <= 0.247\ngini = 0.202\nsamples = 35\nvalue = [31, 4]"] ;
22 -> 23 ;
24 [label="pedigree <= 0.186\ngini = 0.114\nsamples = 33\nvalue = [31, 2]"] ;
23 -> 24 ;
25 [label="gini = 0.0\nsamples = 20\nvalue = [20, 0]"] ;
24 -> 25 ;
26 [label="pedigree <= 0.197\ngini = 0.26\nsamples = 13\nvalue = [11, 2]"] ;
24 -> 26 ;
27 [label="glucose <= 109.0\ngini = 0.444\nsamples = 3\nvalue = [1, 2]"] ;
26 -> 27 ;
28 [label="gini = 0.0\nsamples = 1\nvalue = [1, 0]"] ;
27 -> 28 ;
29 [label="gini = 0.0\nsamples = 2\nvalue = [0, 2]"] ;
27 -> 29 ;
30 [label="gini = 0.0\nsamples = 10\nvalue = [10, 0]"] ;
26 -> 30 ;
31 [label="gini = 0.0\nsamples = 2\nvalue = [0, 2]"] ;
23 -> 31 ;
32 [label="gini = 0.0\nsamples = 49\nvalue = [49, 0]"] ;
22 -> 32 ;
33 [label="gini = 0.0\nsamples = 1\nvalue = [0, 1]"] ;
21 -> 33 ;
34 [label="age <= 23.0\ngini = 0.444\nsamples = 3\nvalue = [1, 2]"] ;
20 -> 34 ;
35 [label="gini = 0.0\nsamples = 1\nvalue = [1, 0]"] ;
34 -> 35 ;
36 [label="gini = 0.0\nsamples = 2\nvalue = [0, 2]"] ;
34 -> 36 ;
37 [label="bmi <= 32.2\ngini = 0.383\nsamples = 58\nvalue = [43, 15]"] ;
19 -> 37 ;
38 [label="glucose <= 132.0\ngini = 0.165\nsamples = 22\nvalue = [20, 2]"] ;
37 -> 38 ;
39 [label="gini = 0.0\nsamples = 18\nvalue = [18, 0]"] ;
38 -> 39 ;
40 [label="insulin <= 41.5\ngini = 0.5\nsamples = 4\nvalue = [2, 2]"] ;
38 -> 40 ;
41 [label="gini = 0.0\nsamples = 2\nvalue = [0, 2]"] ;
40 -> 41 ;
42 [label="gini = 0.0\nsamples = 2\nvalue = [2, 0]"] ;
40 -> 42 ;
43 [label="bp <= 69.0\ngini = 0.461\nsamples = 36\nvalue = [23, 13]"] ;
37 -> 43 ;
44 [label="glucose <= 87.5\ngini = 0.499\nsamples = 19\nvalue = [10, 9]"] ;
43 -> 44 ;
45 [label="gini = 0.0\nsamples = 4\nvalue = [4, 0]"] ;
44 -> 45 ;
46 [label="bmi <= 34.85\ngini = 0.48\nsamples = 15\nvalue = [6, 9]"] ;
44 -> 46 ;
47 [label="gini = 0.0\nsamples = 5\nvalue = [0, 5]"] ;
46 -> 47 ;
48 [label="glucose <= 95.0\ngini = 0.48\nsamples = 10\nvalue = [6, 4]"] ;
46 -> 48 ;
49 [label="gini = 0.0\nsamples = 2\nvalue = [0, 2]"] ;
48 -> 49 ;
50 [label="pregnant <= 3.5\ngini = 0.375\nsamples = 8\nvalue = [6, 2]"] ;
48 -> 50 ;
51 [label="insulin <= 179.5\ngini = 0.245\nsamples = 7\nvalue = [6, 1]"] ;
50 -> 51 ;
52 [label="gini = 0.0\nsamples = 5\nvalue = [5, 0]"] ;
51 -> 52 ;
53 [label="glucose <= 133.5\ngini = 0.5\nsamples = 2\nvalue = [1, 1]"] ;
51 -> 53 ;
54 [label="gini = 0.0\nsamples = 1\nvalue = [0, 1]"] ;
53 -> 54 ;
55 [label="gini = 0.0\nsamples = 1\nvalue = [1, 0]"] ;
53 -> 55 ;
56 [label="gini = 0.0\nsamples = 1\nvalue = [0, 1]"] ;
50 -> 56 ;
57 [label="age <= 22.5\ngini = 0.36\nsamples = 17\nvalue = [13, 4]"] ;
43 -> 57 ;
58 [label="bmi <= 42.8\ngini = 0.444\nsamples = 3\nvalue = [1, 2]"] ;
57 -> 58 ;
59 [label="gini = 0.0\nsamples = 1\nvalue = [1, 0]"] ;
58 -> 59 ;
60 [label="gini = 0.0\nsamples = 2\nvalue = [0, 2]"] ;
58 -> 60 ;
61 [label="bmi <= 32.35\ngini = 0.245\nsamples = 14\nvalue = [12, 2]"] ;
57 -> 61 ;
62 [label="gini = 0.0\nsamples = 1\nvalue = [0, 1]"] ;
61 -> 62 ;
63 [label="pedigree <= 1.098\ngini = 0.142\nsamples = 13\nvalue = [12, 1]"] ;
61 -> 63 ;
64 [label="gini = 0.0\nsamples = 12\nvalue = [12, 0]"] ;
63 -> 64 ;
65 [label="gini = 0.0\nsamples = 1\nvalue = [0, 1]"] ;
63 -> 65 ;
66 [label="pedigree <= 0.688\ngini = 0.375\nsamples = 4\nvalue = [1, 3]"] ;
18 -> 66 ;
67 [label="gini = 0.0\nsamples = 3\nvalue = [0, 3]"] ;
66 -> 67 ;
68 [label="gini = 0.0\nsamples = 1\nvalue = [1, 0]"] ;
66 -> 68 ;
69 [label="pedigree <= 0.625\ngini = 0.496\nsamples = 156\nvalue = [85, 71]"] ;
15 -> 69 ;
70 [label="glucose <= 106.5\ngini = 0.465\nsamples = 117\nvalue = [74, 43]"] ;
69 -> 70 ;
71 [label="pregnant <= 13.5\ngini = 0.32\nsamples = 45\nvalue = [36, 9]"] ;
70 -> 71 ;
72 [label="glucose <= 28.5\ngini = 0.298\nsamples = 44\nvalue = [36, 8]"] ;
71 -> 72 ;
73 [label="gini = 0.0\nsamples = 1\nvalue = [0, 1]"] ;
72 -> 73 ;
74 [label="glucose <= 93.5\ngini = 0.273\nsamples = 43\nvalue = [36, 7]"] ;
72 -> 74 ;
75 [label="pregnant <= 11.5\ngini = 0.095\nsamples = 20\nvalue = [19, 1]"] ;
74 -> 75 ;
76 [label="gini = 0.0\nsamples = 17\nvalue = [17, 0]"] ;
75 -> 76 ;
77 [label="bmi <= 31.25\ngini = 0.444\nsamples = 3\nvalue = [2, 1]"] ;
75 -> 77 ;
78 [label="gini = 0.0\nsamples = 1\nvalue = [0, 1]"] ;
77 -> 78 ;
79 [label="gini = 0.0\nsamples = 2\nvalue = [2, 0]"] ;
77 -> 79 ;
80 [label="bmi <= 36.1\ngini = 0.386\nsamples = 23\nvalue = [17, 6]"] ;
74 -> 80 ;
81 [label="glucose <= 97.5\ngini = 0.486\nsamples = 12\nvalue = [7, 5]"] ;
80 -> 81 ;
82 [label="gini = 0.0\nsamples = 3\nvalue = [0, 3]"] ;
81 -> 82 ;
83 [label="age <= 39.0\ngini = 0.346\nsamples = 9\nvalue = [7, 2]"] ;
81 -> 83 ;
84 [label="pregnant <= 4.5\ngini = 0.444\nsamples = 3\nvalue = [1, 2]"] ;
83 -> 84 ;
85 [label="gini = 0.0\nsamples = 1\nvalue = [1, 0]"] ;
84 -> 85 ;
86 [label="gini = 0.0\nsamples = 2\nvalue = [0, 2]"] ;
84 -> 86 ;
87 [label="gini = 0.0\nsamples = 6\nvalue = [6, 0]"] ;
83 -> 87 ;
88 [label="bp <= 91.0\ngini = 0.165\nsamples = 11\nvalue = [10, 1]"] ;
80 -> 88 ;
89 [label="gini = 0.0\nsamples = 9\nvalue = [9, 0]"] ;
88 -> 89 ;
90 [label="glucose <= 104.0\ngini = 0.5\nsamples = 2\nvalue = [1, 1]"] ;
88 -> 90 ;
91 [label="gini = 0.0\nsamples = 1\nvalue = [1, 0]"] ;
90 -> 91 ;
92 [label="gini = 0.0\nsamples = 1\nvalue = [0, 1]"] ;
90 -> 92 ;
93 [label="gini = 0.0\nsamples = 1\nvalue = [0, 1]"] ;
71 -> 93 ;
94 [label="pregnant <= 5.5\ngini = 0.498\nsamples = 72\nvalue = [38, 34]"] ;
70 -> 94 ;
95 [label="pregnant <= 1.5\ngini = 0.444\nsamples = 39\nvalue = [26, 13]"] ;
94 -> 95 ;
96 [label="bmi <= 29.2\ngini = 0.444\nsamples = 9\nvalue = [3, 6]"] ;
95 -> 96 ;
97 [label="pedigree <= 0.243\ngini = 0.375\nsamples = 4\nvalue = [3, 1]"] ;
96 -> 97 ;
98 [label="gini = 0.0\nsamples = 3\nvalue = [3, 0]"] ;
97 -> 98 ;
99 [label="gini = 0.0\nsamples = 1\nvalue = [0, 1]"] ;
97 -> 99 ;
100 [label="gini = 0.0\nsamples = 5\nvalue = [0, 5]"] ;
96 -> 100 ;
101 [label="insulin <= 258.0\ngini = 0.358\nsamples = 30\nvalue = [23, 7]"] ;
95 -> 101 ;
102 [label="bp <= 100.0\ngini = 0.328\nsamples = 29\nvalue = [23, 6]"] ;
101 -> 102 ;
103 [label="bmi <= 27.25\ngini = 0.293\nsamples = 28\nvalue = [23, 5]"] ;
102 -> 103 ;
104 [label="gini = 0.0\nsamples = 1\nvalue = [0, 1]"] ;
103 -> 104 ;
105 [label="pedigree <= 0.387\ngini = 0.252\nsamples = 27\nvalue = [23, 4]"] ;
103 -> 105 ;
106 [label="pedigree <= 0.314\ngini = 0.346\nsamples = 18\nvalue = [14, 4]"] ;
105 -> 106 ;
107 [label="pregnant <= 4.5\ngini = 0.231\nsamples = 15\nvalue = [13, 2]"] ;
106 -> 107 ;
108 [label="gini = 0.0\nsamples = 9\nvalue = [9, 0]"] ;
107 -> 108 ;
109 [label="bp <= 76.0\ngini = 0.444\nsamples = 6\nvalue = [4, 2]"] ;
107 -> 109 ;
110 [label="glucose <= 110.0\ngini = 0.444\nsamples = 3\nvalue = [1, 2]"] ;
109 -> 110 ;
111 [label="gini = 0.0\nsamples = 1\nvalue = [1, 0]"] ;
110 -> 111 ;
112 [label="gini = 0.0\nsamples = 2\nvalue = [0, 2]"] ;
110 -> 112 ;
113 [label="gini = 0.0\nsamples = 3\nvalue = [3, 0]"] ;
109 -> 113 ;
114 [label="pregnant <= 4.5\ngini = 0.444\nsamples = 3\nvalue = [1, 2]"] ;
106 -> 114 ;
115 [label="gini = 0.0\nsamples = 2\nvalue = [0, 2]"] ;
114 -> 115 ;
116 [label="gini = 0.0\nsamples = 1\nvalue = [1, 0]"] ;
114 -> 116 ;
117 [label="gini = 0.0\nsamples = 9\nvalue = [9, 0]"] ;
105 -> 117 ;
118 [label="gini = 0.0\nsamples = 1\nvalue = [0, 1]"] ;
102 -> 118 ;
119 [label="gini = 0.0\nsamples = 1\nvalue = [0, 1]"] ;
101 -> 119 ;
120 [label="bp <= 86.0\ngini = 0.463\nsamples = 33\nvalue = [12, 21]"] ;
94 -> 120 ;
121 [label="bmi <= 27.25\ngini = 0.393\nsamples = 26\nvalue = [7, 19]"] ;
120 -> 121 ;
122 [label="gini = 0.0\nsamples = 1\nvalue = [1, 0]"] ;
121 -> 122 ;
123 [label="glucose <= 143.5\ngini = 0.365\nsamples = 25\nvalue = [6, 19]"] ;
121 -> 123 ;
124 [label="pregnant <= 9.5\ngini = 0.33\nsamples = 24\nvalue = [5, 19]"] ;
123 -> 124 ;
125 [label="pedigree <= 0.451\ngini = 0.153\nsamples = 12\nvalue = [1, 11]"] ;
124 -> 125 ;
126 [label="gini = 0.0\nsamples = 10\nvalue = [0, 10]"] ;
125 -> 126 ;
127 [label="glucose <= 129.5\ngini = 0.5\nsamples = 2\nvalue = [1, 1]"] ;
125 -> 127 ;
128 [label="gini = 0.0\nsamples = 1\nvalue = [1, 0]"] ;
127 -> 128 ;
129 [label="gini = 0.0\nsamples = 1\nvalue = [0, 1]"] ;
127 -> 129 ;
130 [label="bmi <= 37.55\ngini = 0.444\nsamples = 12\nvalue = [4, 8]"] ;
124 -> 130 ;
131 [label="pedigree <= 0.276\ngini = 0.5\nsamples = 8\nvalue = [4, 4]"] ;
130 -> 131 ;
132 [label="bmi <= 31.15\ngini = 0.444\nsamples = 6\nvalue = [2, 4]"] ;
131 -> 132 ;
133 [label="gini = 0.0\nsamples = 3\nvalue = [0, 3]"] ;
132 -> 133 ;
134 [label="glucose <= 111.5\ngini = 0.444\nsamples = 3\nvalue = [2, 1]"] ;
132 -> 134 ;
135 [label="gini = 0.0\nsamples = 1\nvalue = [0, 1]"] ;
134 -> 135 ;
136 [label="gini = 0.0\nsamples = 2\nvalue = [2, 0]"] ;
134 -> 136 ;
137 [label="gini = 0.0\nsamples = 2\nvalue = [2, 0]"] ;
131 -> 137 ;
138 [label="gini = 0.0\nsamples = 4\nvalue = [0, 4]"] ;
130 -> 138 ;
139 [label="gini = 0.0\nsamples = 1\nvalue = [1, 0]"] ;
123 -> 139 ;
140 [label="glucose <= 139.5\ngini = 0.408\nsamples = 7\nvalue = [5, 2]"] ;
120 -> 140 ;
141 [label="gini = 0.0\nsamples = 5\nvalue = [5, 0]"] ;
140 -> 141 ;
142 [label="gini = 0.0\nsamples = 2\nvalue = [0, 2]"] ;
140 -> 142 ;
143 [label="pregnant <= 7.5\ngini = 0.405\nsamples = 39\nvalue = [11, 28]"] ;
69 -> 143 ;
144 [label="bmi <= 29.15\ngini = 0.483\nsamples = 27\nvalue = [11, 16]"] ;
143 -> 144 ;
145 [label="gini = 0.0\nsamples = 5\nvalue = [0, 5]"] ;
144 -> 145 ;
146 [label="glucose <= 96.5\ngini = 0.5\nsamples = 22\nvalue = [11, 11]"] ;
144 -> 146 ;
147 [label="gini = 0.0\nsamples = 4\nvalue = [4, 0]"] ;
146 -> 147 ;
148 [label="bp <= 79.0\ngini = 0.475\nsamples = 18\nvalue = [7, 11]"] ;
146 -> 148 ;
149 [label="bmi <= 29.75\ngini = 0.245\nsamples = 7\nvalue = [1, 6]"] ;
148 -> 149 ;
150 [label="gini = 0.0\nsamples = 1\nvalue = [1, 0]"] ;
149 -> 150 ;
151 [label="gini = 0.0\nsamples = 6\nvalue = [0, 6]"] ;
149 -> 151 ;
152 [label="pedigree <= 0.735\ngini = 0.496\nsamples = 11\nvalue = [6, 5]"] ;
148 -> 152 ;
153 [label="gini = 0.0\nsamples = 3\nvalue = [3, 0]"] ;
152 -> 153 ;
154 [label="bmi <= 37.4\ngini = 0.469\nsamples = 8\nvalue = [3, 5]"] ;
152 -> 154 ;
155 [label="gini = 0.0\nsamples = 3\nvalue = [0, 3]"] ;
154 -> 155 ;
156 [label="glucose <= 114.0\ngini = 0.48\nsamples = 5\nvalue = [3, 2]"] ;
154 -> 156 ;
157 [label="gini = 0.0\nsamples = 2\nvalue = [2, 0]"] ;
156 -> 157 ;
158 [label="age <= 39.0\ngini = 0.444\nsamples = 3\nvalue = [1, 2]"] ;
156 -> 158 ;
159 [label="gini = 0.0\nsamples = 2\nvalue = [0, 2]"] ;
158 -> 159 ;
160 [label="gini = 0.0\nsamples = 1\nvalue = [1, 0]"] ;
158 -> 160 ;
161 [label="gini = 0.0\nsamples = 12\nvalue = [0, 12]"] ;
143 -> 161 ;
162 [label="glucose <= 154.5\ngini = 0.381\nsamples = 121\nvalue = [31, 90]"] ;
0 -> 162 [labeldistance=2.5, labelangle=-45, headlabel="False"] ;
163 [label="age <= 28.5\ngini = 0.498\nsamples = 34\nvalue = [16, 18]"] ;
162 -> 163 ;
164 [label="glucose <= 146.5\ngini = 0.198\nsamples = 9\nvalue = [8, 1]"] ;
163 -> 164 ;
165 [label="gini = 0.0\nsamples = 1\nvalue = [0, 1]"] ;
164 -> 165 ;
166 [label="gini = 0.0\nsamples = 8\nvalue = [8, 0]"] ;
164 -> 166 ;
167 [label="bmi <= 24.5\ngini = 0.435\nsamples = 25\nvalue = [8, 17]"] ;
163 -> 167 ;
168 [label="gini = 0.0\nsamples = 2\nvalue = [2, 0]"] ;
167 -> 168 ;
169 [label="bmi <= 36.25\ngini = 0.386\nsamples = 23\nvalue = [6, 17]"] ;
167 -> 169 ;
170 [label="bmi <= 34.45\ngini = 0.469\nsamples = 16\nvalue = [6, 10]"] ;
169 -> 170 ;
171 [label="pedigree <= 0.226\ngini = 0.408\nsamples = 14\nvalue = [4, 10]"] ;
170 -> 171 ;
172 [label="pregnant <= 4.5\ngini = 0.444\nsamples = 3\nvalue = [2, 1]"] ;
171 -> 172 ;
173 [label="gini = 0.0\nsamples = 1\nvalue = [0, 1]"] ;
172 -> 173 ;
174 [label="gini = 0.0\nsamples = 2\nvalue = [2, 0]"] ;
172 -> 174 ;
175 [label="bp <= 62.0\ngini = 0.298\nsamples = 11\nvalue = [2, 9]"] ;
171 -> 175 ;
176 [label="gini = 0.0\nsamples = 1\nvalue = [1, 0]"] ;
175 -> 176 ;
177 [label="glucose <= 153.0\ngini = 0.18\nsamples = 10\nvalue = [1, 9]"] ;
175 -> 177 ;
178 [label="gini = 0.0\nsamples = 8\nvalue = [0, 8]"] ;
177 -> 178 ;
179 [label="bp <= 76.0\ngini = 0.5\nsamples = 2\nvalue = [1, 1]"] ;
177 -> 179 ;
180 [label="gini = 0.0\nsamples = 1\nvalue = [1, 0]"] ;
179 -> 180 ;
181 [label="gini = 0.0\nsamples = 1\nvalue = [0, 1]"] ;
179 -> 181 ;
182 [label="gini = 0.0\nsamples = 2\nvalue = [2, 0]"] ;
170 -> 182 ;
183 [label="gini = 0.0\nsamples = 7\nvalue = [0, 7]"] ;
169 -> 183 ;
184 [label="bmi <= 29.3\ngini = 0.285\nsamples = 87\nvalue = [15, 72]"] ;
162 -> 184 ;
185 [label="bp <= 77.0\ngini = 0.486\nsamples = 12\nvalue = [5, 7]"] ;
184 -> 185 ;
186 [label="age <= 60.5\ngini = 0.219\nsamples = 8\nvalue = [1, 7]"] ;
185 -> 186 ;
187 [label="gini = 0.0\nsamples = 7\nvalue = [0, 7]"] ;
186 -> 187 ;
188 [label="gini = 0.0\nsamples = 1\nvalue = [1, 0]"] ;
186 -> 188 ;
189 [label="gini = 0.0\nsamples = 4\nvalue = [4, 0]"] ;
185 -> 189 ;
190 [label="pedigree <= 1.428\ngini = 0.231\nsamples = 75\nvalue = [10, 65]"] ;
184 -> 190 ;
191 [label="bmi <= 46.1\ngini = 0.198\nsamples = 72\nvalue = [8, 64]"] ;
190 -> 191 ;
192 [label="pedigree <= 0.206\ngini = 0.161\nsamples = 68\nvalue = [6, 62]"] ;
191 -> 192 ;
193 [label="age <= 37.5\ngini = 0.49\nsamples = 7\nvalue = [3, 4]"] ;
192 -> 193 ;
194 [label="gini = 0.0\nsamples = 2\nvalue = [2, 0]"] ;
193 -> 194 ;
195 [label="age <= 56.0\ngini = 0.32\nsamples = 5\nvalue = [1, 4]"] ;
193 -> 195 ;
196 [label="gini = 0.0\nsamples = 4\nvalue = [0, 4]"] ;
195 -> 196 ;
197 [label="gini = 0.0\nsamples = 1\nvalue = [1, 0]"] ;
195 -> 197 ;
198 [label="insulin <= 542.5\ngini = 0.094\nsamples = 61\nvalue = [3, 58]"] ;
192 -> 198 ;
199 [label="bmi <= 33.65\ngini = 0.067\nsamples = 58\nvalue = [2, 56]"] ;
198 -> 199 ;
200 [label="glucose <= 190.0\ngini = 0.219\nsamples = 16\nvalue = [2, 14]"] ;
199 -> 200 ;
201 [label="bmi <= 33.45\ngini = 0.124\nsamples = 15\nvalue = [1, 14]"] ;
200 -> 201 ;
202 [label="gini = 0.0\nsamples = 13\nvalue = [0, 13]"] ;
201 -> 202 ;
203 [label="glucose <= 170.0\ngini = 0.5\nsamples = 2\nvalue = [1, 1]"] ;
201 -> 203 ;
204 [label="gini = 0.0\nsamples = 1\nvalue = [1, 0]"] ;
203 -> 204 ;
205 [label="gini = 0.0\nsamples = 1\nvalue = [0, 1]"] ;
203 -> 205 ;
206 [label="gini = 0.0\nsamples = 1\nvalue = [1, 0]"] ;
200 -> 206 ;
207 [label="gini = 0.0\nsamples = 42\nvalue = [0, 42]"] ;
199 -> 207 ;
208 [label="bp <= 76.0\ngini = 0.444\nsamples = 3\nvalue = [1, 2]"] ;
198 -> 208 ;
209 [label="gini = 0.0\nsamples = 2\nvalue = [0, 2]"] ;
208 -> 209 ;
210 [label="gini = 0.0\nsamples = 1\nvalue = [1, 0]"] ;
208 -> 210 ;
211 [label="insulin <= 127.5\ngini = 0.5\nsamples = 4\nvalue = [2, 2]"] ;
191 -> 211 ;
212 [label="gini = 0.0\nsamples = 2\nvalue = [0, 2]"] ;
211 -> 212 ;
213 [label="gini = 0.0\nsamples = 2\nvalue = [2, 0]"] ;
211 -> 213 ;
214 [label="age <= 28.0\ngini = 0.444\nsamples = 3\nvalue = [2, 1]"] ;
190 -> 214 ;
215 [label="gini = 0.0\nsamples = 1\nvalue = [0, 1]"] ;
214 -> 215 ;
216 [label="gini = 0.0\nsamples = 2\nvalue = [2, 0]"] ;
214 -> 216 ;
}